net
{
     node_size = (0 0);
     name = "New BN";
     tree = "(What race is the passengers,What day of the week is weekday or weekend,Does the riders mostly have jobs,Zip code input,How long is the commute,PerCapitaIncome,does the person have a car,C3,Are they riding the bus,PovertyRate)";
     UnBBayes_Color_Probabilistic_Description = "-256";
     UnBBayes_Color_Probabilistic_Explanation = "-16711936";
}

node Race
{
     label = "What race is the passengers";
     position = (312 460);
     states = ("Black" "White" "Other");
}

node Weekday
{
     label = "What day of the week is weekday or weekend";
     position = (123 122);
     states = ("sunday" "monday" "tuesday" "wednesday" "thursday" "friday" "saturday");
}

node HaveJob
{
     label = "Does the riders mostly have jobs";
     position = (1126 269);
     states = ("popular to ride" "notriding");
}

node WhatZipcode
{
     label = "Zip code input";
     position = (267 16);
     states = ("27105" "27101" "27107");
}

node CommuteTime
{
     label = "How long is the commute";
     position = (914 505);
     states = ("less 20" "20-40" "40-60" "60+");
}

node PerCapitaIncome
{
     label = "PovertyRate";
     position = (885 39);
     states = ("State 0" "State 1");
}

node HaveCar
{
     label = "does the person have a car";
     position = (595 21);
     states = ("havecar" "State 1");
}

node UnemploymentRate
{
     label = "C3";
     position = (196 320);
     states = ("rate" "employed");
}

node BusRidership
{
     label = "Are they riding the bus";
     position = (590 556);
     states = ("riding" "notriding");
}

potential (Race)
{
 data = ( 0.82942736 0.13266762 0.037905034 );
}

potential (Weekday)
{
 data = ( 0.14285713 0.14285713 0.14285713 0.14285713 0.14285713 0.14285713 0.14285713 );
}

potential (HaveJob | PerCapitaIncome UnemploymentRate HaveCar Weekday)
{
 data = ((((( 0.20513052 0.7948695 )
( 0.86142606 0.13857394 )
( 0.8331233 0.16687669 )
( 0.8331233 0.16687669 )
( 0.8331233 0.16687669 )
( 0.8540054 0.14599459 )
( 0.55 0.45 ))
(( 0.20513052 0.7948695 )
( 0.86142606 0.13857394 )
( 0.8331233 0.16687669 )
( 0.8331233 0.16687669 )
( 0.8331233 0.16687669 )
( 0.8540054 0.14599459 )
( 0.55 0.45 )))
((( 0.20513052 0.7948695 )
( 0.86142606 0.13857394 )
( 0.8331233 0.16687669 )
( 0.8331233 0.16687669 )
( 0.8331233 0.16687669 )
( 0.8540054 0.14599459 )
( 0.55 0.45 ))
(( 0.20513052 0.7948695 )
( 0.86142606 0.13857394 )
( 0.8331233 0.16687669 )
( 0.8331233 0.16687669 )
( 0.8331233 0.16687669 )
( 0.8540054 0.14599459 )
( 0.55 0.45 ))))
(((( 0.20513052 0.7948695 )
( 0.86142606 0.13857394 )
( 0.8331233 0.16687669 )
( 0.8331233 0.16687669 )
( 0.8331233 0.16687669 )
( 0.8540054 0.14599459 )
( 0.55 0.45 ))
(( 0.20513052 0.7948695 )
( 0.86142606 0.13857394 )
( 0.8331233 0.16687669 )
( 0.8331233 0.16687669 )
( 0.8331233 0.16687669 )
( 0.8540054 0.14599459 )
( 0.55 0.45 )))
((( 0.20513052 0.7948695 )
( 0.86142606 0.13857394 )
( 0.8331233 0.16687669 )
( 0.8331233 0.16687669 )
( 0.8331233 0.16687669 )
( 0.8540054 0.14599459 )
( 0.55 0.45 ))
(( 0.20513052 0.7948695 )
( 0.86142606 0.13857394 )
( 0.8331233 0.16687669 )
( 0.8331233 0.16687669 )
( 0.8331233 0.16687669 )
( 0.8540054 0.14599459 )
( 0.55 0.45 )))));
}

potential (WhatZipcode | Race)
{
 data = (( 0.5555548 0.2592598 0.18518537 )
( 0.41938314 0.47180715 0.108809695 )
( 0.5 0.25 0.25 ));
}

potential (CommuteTime)
{
 data = ( 0.5065065 0.3853854 0.06606607 0.042042043 );
}

potential (PerCapitaIncome | WhatZipcode)
{
 data = (( 0.27181885 0.7281811 )
( 0.28978288 0.7102171 )
( 0.26801074 0.73198926 ));
}

potential (HaveCar | WhatZipcode)
{
 data = (( 0.40002397 0.599976 )
( 0.100008994 0.89999104 )
( 0.8572431 0.14275685 ));
}

potential (UnemploymentRate | WhatZipcode)
{
 data = (( 0.11834271 0.8816573 )
( 0.10801805 0.89198196 )
( 0.098600976 0.9013991 ));
}

potential (BusRidership | Race WhatZipcode CommuteTime HaveJob Weekday)
{
 data = (((((( 1.0 0.0 )
( 1.0 0.0 )
( 1.0 0.0 )
( 1.0 0.0 )
( 1.0 0.0 )
( 1.0 0.0 )
( 1.0 0.0 ))
(( 1.0 0.0 )
( 1.0 0.0 )
( 1.0 0.0 )
( 1.0 0.0 )
( 1.0 0.0 )
( 1.0 0.0 )
( 1.0 0.0 )))
((( 1.0 0.0 )
( 1.0 0.0 )
( 1.0 0.0 )
( 1.0 0.0 )
( 1.0 0.0 )
( 1.0 0.0 )
( 1.0 0.0 ))
(( 1.0 0.0 )
( 1.0 0.0 )
( 1.0 0.0 )
( 1.0 0.0 )
( 1.0 0.0 )
( 1.0 0.0 )
( 1.0 0.0 )))
((( 1.0 0.0 )
( 1.0 0.0 )
( 1.0 0.0 )
( 1.0 0.0 )
( 1.0 0.0 )
( 1.0 0.0 )
( 1.0 0.0 ))
(( 1.0 0.0 )
( 1.0 0.0 )
( 1.0 0.0 )
( 1.0 0.0 )
( 1.0 0.0 )
( 1.0 0.0 )
( 1.0 0.0 )))
((( 1.0 0.0 )
( 1.0 0.0 )
( 1.0 0.0 )
( 1.0 0.0 )
( 1.0 0.0 )
( 1.0 0.0 )
( 1.0 0.0 ))
(( 1.0 0.0 )
( 1.0 0.0 )
( 1.0 0.0 )
( 1.0 0.0 )
( 1.0 0.0 )
( 1.0 0.0 )
( 1.0 0.0 ))))
(((( 1.0 0.0 )
( 1.0 0.0 )
( 1.0 0.0 )
( 1.0 0.0 )
( 1.0 0.0 )
( 1.0 0.0 )
( 1.0 0.0 ))
(( 1.0 0.0 )
( 1.0 0.0 )
( 1.0 0.0 )
( 1.0 0.0 )
( 1.0 0.0 )
( 1.0 0.0 )
( 1.0 0.0 )))
((( 1.0 0.0 )
( 1.0 0.0 )
( 1.0 0.0 )
( 1.0 0.0 )
( 1.0 0.0 )
( 1.0 0.0 )
( 1.0 0.0 ))
(( 1.0 0.0 )
( 1.0 0.0 )
( 1.0 0.0 )
( 1.0 0.0 )
( 1.0 0.0 )
( 1.0 0.0 )
( 1.0 0.0 )))
((( 1.0 0.0 )
( 1.0 0.0 )
( 1.0 0.0 )
( 1.0 0.0 )
( 1.0 0.0 )
( 1.0 0.0 )
( 1.0 0.0 ))
(( 1.0 0.0 )
( 1.0 0.0 )
( 1.0 0.0 )
( 1.0 0.0 )
( 1.0 0.0 )
( 1.0 0.0 )
( 1.0 0.0 )))
((( 1.0 0.0 )
( 1.0 0.0 )
( 1.0 0.0 )
( 1.0 0.0 )
( 1.0 0.0 )
( 1.0 0.0 )
( 1.0 0.0 ))
(( 1.0 0.0 )
( 1.0 0.0 )
( 1.0 0.0 )
( 1.0 0.0 )
( 1.0 0.0 )
( 1.0 0.0 )
( 1.0 0.0 ))))
(((( 1.0 0.0 )
( 1.0 0.0 )
( 1.0 0.0 )
( 1.0 0.0 )
( 1.0 0.0 )
( 1.0 0.0 )
( 1.0 0.0 ))
(( 1.0 0.0 )
( 1.0 0.0 )
( 1.0 0.0 )
( 1.0 0.0 )
( 1.0 0.0 )
( 1.0 0.0 )
( 1.0 0.0 )))
((( 1.0 0.0 )
( 1.0 0.0 )
( 1.0 0.0 )
( 1.0 0.0 )
( 1.0 0.0 )
( 1.0 0.0 )
( 1.0 0.0 ))
(( 1.0 0.0 )
( 1.0 0.0 )
( 1.0 0.0 )
( 1.0 0.0 )
( 1.0 0.0 )
( 1.0 0.0 )
( 1.0 0.0 )))
((( 1.0 0.0 )
( 1.0 0.0 )
( 1.0 0.0 )
( 1.0 0.0 )
( 1.0 0.0 )
( 1.0 0.0 )
( 1.0 0.0 ))
(( 1.0 0.0 )
( 1.0 0.0 )
( 1.0 0.0 )
( 1.0 0.0 )
( 1.0 0.0 )
( 1.0 0.0 )
( 1.0 0.0 )))
((( 1.0 0.0 )
( 1.0 0.0 )
( 1.0 0.0 )
( 1.0 0.0 )
( 1.0 0.0 )
( 1.0 0.0 )
( 1.0 0.0 ))
(( 1.0 0.0 )
( 1.0 0.0 )
( 1.0 0.0 )
( 1.0 0.0 )
( 1.0 0.0 )
( 1.0 0.0 )
( 1.0 0.0 )))))
((((( 1.0 0.0 )
( 1.0 0.0 )
( 1.0 0.0 )
( 1.0 0.0 )
( 1.0 0.0 )
( 1.0 0.0 )
( 1.0 0.0 ))
(( 1.0 0.0 )
( 1.0 0.0 )
( 1.0 0.0 )
( 1.0 0.0 )
( 1.0 0.0 )
( 1.0 0.0 )
( 1.0 0.0 )))
((( 1.0 0.0 )
( 1.0 0.0 )
( 1.0 0.0 )
( 1.0 0.0 )
( 1.0 0.0 )
( 1.0 0.0 )
( 1.0 0.0 ))
(( 1.0 0.0 )
( 1.0 0.0 )
( 1.0 0.0 )
( 1.0 0.0 )
( 1.0 0.0 )
( 1.0 0.0 )
( 1.0 0.0 )))
((( 1.0 0.0 )
( 1.0 0.0 )
( 1.0 0.0 )
( 1.0 0.0 )
( 1.0 0.0 )
( 1.0 0.0 )
( 1.0 0.0 ))
(( 1.0 0.0 )
( 1.0 0.0 )
( 1.0 0.0 )
( 1.0 0.0 )
( 1.0 0.0 )
( 1.0 0.0 )
( 1.0 0.0 )))
((( 1.0 0.0 )
( 1.0 0.0 )
( 1.0 0.0 )
( 1.0 0.0 )
( 1.0 0.0 )
( 1.0 0.0 )
( 1.0 0.0 ))
(( 1.0 0.0 )
( 1.0 0.0 )
( 1.0 0.0 )
( 1.0 0.0 )
( 1.0 0.0 )
( 1.0 0.0 )
( 1.0 0.0 ))))
(((( 1.0 0.0 )
( 1.0 0.0 )
( 1.0 0.0 )
( 1.0 0.0 )
( 1.0 0.0 )
( 1.0 0.0 )
( 1.0 0.0 ))
(( 1.0 0.0 )
( 1.0 0.0 )
( 1.0 0.0 )
( 1.0 0.0 )
( 1.0 0.0 )
( 1.0 0.0 )
( 1.0 0.0 )))
((( 1.0 0.0 )
( 1.0 0.0 )
( 1.0 0.0 )
( 1.0 0.0 )
( 1.0 0.0 )
( 1.0 0.0 )
( 1.0 0.0 ))
(( 1.0 0.0 )
( 1.0 0.0 )
( 1.0 0.0 )
( 1.0 0.0 )
( 1.0 0.0 )
( 1.0 0.0 )
( 1.0 0.0 )))
((( 1.0 0.0 )
( 1.0 0.0 )
( 1.0 0.0 )
( 1.0 0.0 )
( 1.0 0.0 )
( 1.0 0.0 )
( 1.0 0.0 ))
(( 1.0 0.0 )
( 1.0 0.0 )
( 1.0 0.0 )
( 1.0 0.0 )
( 1.0 0.0 )
( 1.0 0.0 )
( 1.0 0.0 )))
((( 1.0 0.0 )
( 1.0 0.0 )
( 1.0 0.0 )
( 1.0 0.0 )
( 1.0 0.0 )
( 1.0 0.0 )
( 1.0 0.0 ))
(( 1.0 0.0 )
( 1.0 0.0 )
( 1.0 0.0 )
( 1.0 0.0 )
( 1.0 0.0 )
( 1.0 0.0 )
( 1.0 0.0 ))))
(((( 1.0 0.0 )
( 1.0 0.0 )
( 1.0 0.0 )
( 1.0 0.0 )
( 1.0 0.0 )
( 1.0 0.0 )
( 1.0 0.0 ))
(( 1.0 0.0 )
( 1.0 0.0 )
( 1.0 0.0 )
( 1.0 0.0 )
( 1.0 0.0 )
( 1.0 0.0 )
( 1.0 0.0 )))
((( 1.0 0.0 )
( 1.0 0.0 )
( 1.0 0.0 )
( 1.0 0.0 )
( 1.0 0.0 )
( 1.0 0.0 )
( 1.0 0.0 ))
(( 1.0 0.0 )
( 1.0 0.0 )
( 1.0 0.0 )
( 1.0 0.0 )
( 1.0 0.0 )
( 1.0 0.0 )
( 1.0 0.0 )))
((( 1.0 0.0 )
( 1.0 0.0 )
( 1.0 0.0 )
( 1.0 0.0 )
( 1.0 0.0 )
( 1.0 0.0 )
( 1.0 0.0 ))
(( 1.0 0.0 )
( 1.0 0.0 )
( 1.0 0.0 )
( 1.0 0.0 )
( 1.0 0.0 )
( 1.0 0.0 )
( 1.0 0.0 )))
((( 1.0 0.0 )
( 1.0 0.0 )
( 1.0 0.0 )
( 1.0 0.0 )
( 1.0 0.0 )
( 1.0 0.0 )
( 1.0 0.0 ))
(( 1.0 0.0 )
( 1.0 0.0 )
( 1.0 0.0 )
( 1.0 0.0 )
( 1.0 0.0 )
( 1.0 0.0 )
( 1.0 0.0 )))))
((((( 1.0 0.0 )
( 1.0 0.0 )
( 1.0 0.0 )
( 1.0 0.0 )
( 1.0 0.0 )
( 1.0 0.0 )
( 1.0 0.0 ))
(( 1.0 0.0 )
( 1.0 0.0 )
( 1.0 0.0 )
( 1.0 0.0 )
( 1.0 0.0 )
( 1.0 0.0 )
( 1.0 0.0 )))
((( 1.0 0.0 )
( 1.0 0.0 )
( 1.0 0.0 )
( 1.0 0.0 )
( 1.0 0.0 )
( 1.0 0.0 )
( 1.0 0.0 ))
(( 1.0 0.0 )
( 1.0 0.0 )
( 1.0 0.0 )
( 1.0 0.0 )
( 1.0 0.0 )
( 1.0 0.0 )
( 1.0 0.0 )))
((( 1.0 0.0 )
( 1.0 0.0 )
( 1.0 0.0 )
( 1.0 0.0 )
( 1.0 0.0 )
( 1.0 0.0 )
( 1.0 0.0 ))
(( 1.0 0.0 )
( 1.0 0.0 )
( 1.0 0.0 )
( 1.0 0.0 )
( 1.0 0.0 )
( 1.0 0.0 )
( 1.0 0.0 )))
((( 1.0 0.0 )
( 1.0 0.0 )
( 1.0 0.0 )
( 1.0 0.0 )
( 1.0 0.0 )
( 1.0 0.0 )
( 1.0 0.0 ))
(( 1.0 0.0 )
( 1.0 0.0 )
( 1.0 0.0 )
( 1.0 0.0 )
( 1.0 0.0 )
( 1.0 0.0 )
( 1.0 0.0 ))))
(((( 1.0 0.0 )
( 1.0 0.0 )
( 1.0 0.0 )
( 1.0 0.0 )
( 1.0 0.0 )
( 1.0 0.0 )
( 1.0 0.0 ))
(( 1.0 0.0 )
( 1.0 0.0 )
( 1.0 0.0 )
( 1.0 0.0 )
( 1.0 0.0 )
( 1.0 0.0 )
( 1.0 0.0 )))
((( 1.0 0.0 )
( 1.0 0.0 )
( 1.0 0.0 )
( 1.0 0.0 )
( 1.0 0.0 )
( 1.0 0.0 )
( 1.0 0.0 ))
(( 1.0 0.0 )
( 1.0 0.0 )
( 1.0 0.0 )
( 1.0 0.0 )
( 1.0 0.0 )
( 1.0 0.0 )
( 1.0 0.0 )))
((( 1.0 0.0 )
( 1.0 0.0 )
( 1.0 0.0 )
( 1.0 0.0 )
( 1.0 0.0 )
( 1.0 0.0 )
( 1.0 0.0 ))
(( 1.0 0.0 )
( 1.0 0.0 )
( 1.0 0.0 )
( 1.0 0.0 )
( 1.0 0.0 )
( 1.0 0.0 )
( 1.0 0.0 )))
((( 1.0 0.0 )
( 1.0 0.0 )
( 1.0 0.0 )
( 1.0 0.0 )
( 1.0 0.0 )
( 1.0 0.0 )
( 1.0 0.0 ))
(( 1.0 0.0 )
( 1.0 0.0 )
( 1.0 0.0 )
( 1.0 0.0 )
( 1.0 0.0 )
( 1.0 0.0 )
( 1.0 0.0 ))))
(((( 1.0 0.0 )
( 1.0 0.0 )
( 1.0 0.0 )
( 1.0 0.0 )
( 1.0 0.0 )
( 1.0 0.0 )
( 1.0 0.0 ))
(( 1.0 0.0 )
( 1.0 0.0 )
( 1.0 0.0 )
( 1.0 0.0 )
( 1.0 0.0 )
( 1.0 0.0 )
( 1.0 0.0 )))
((( 1.0 0.0 )
( 1.0 0.0 )
( 1.0 0.0 )
( 1.0 0.0 )
( 1.0 0.0 )
( 1.0 0.0 )
( 1.0 0.0 ))
(( 1.0 0.0 )
( 1.0 0.0 )
( 1.0 0.0 )
( 1.0 0.0 )
( 1.0 0.0 )
( 1.0 0.0 )
( 1.0 0.0 )))
((( 1.0 0.0 )
( 1.0 0.0 )
( 1.0 0.0 )
( 1.0 0.0 )
( 1.0 0.0 )
( 1.0 0.0 )
( 1.0 0.0 ))
(( 1.0 0.0 )
( 1.0 0.0 )
( 1.0 0.0 )
( 1.0 0.0 )
( 1.0 0.0 )
( 1.0 0.0 )
( 1.0 0.0 )))
((( 1.0 0.0 )
( 1.0 0.0 )
( 1.0 0.0 )
( 1.0 0.0 )
( 1.0 0.0 )
( 1.0 0.0 )
( 1.0 0.0 ))
(( 1.0 0.0 )
( 1.0 0.0 )
( 1.0 0.0 )
( 1.0 0.0 )
( 1.0 0.0 )
( 1.0 0.0 )
( 1.0 0.0 ))))));
}

