net
{
     node_size = (0 0);
     name = "New BN";
     tree = "(What race is the passengers,What day of the week is weekday or weekend,Does the riders mostly have jobs,Zip code input,How long is the commute,PerCapitaIncome,does the person have a car,C3,Are they riding the bus)";
     UnBBayes_Color_Probabilistic_Description = "-256";
     UnBBayes_Color_Probabilistic_Explanation = "-16711936";
}

node Race
{
     label = "What race is the passengers";
     position = (312 460);
     states = ("Black" "White" "Other");
}

node Weekday
{
     label = "What day of the week is weekday or weekend";
     position = (123 122);
     states = ("sunday" "monday" "tuesday" "wednesday" "thursday" "friday" "saturday");
}

node HaveJob
{
     label = "Does the riders mostly have jobs";
     position = (1126 269);
     states = ("popular to ride");
}

node WhatZipcode
{
     label = "Zip code input";
     position = (511 111);
     states = ("27105" "27101" "27107");
}

node CommuteTime
{
     label = "How long is the commute";
     position = (865 384);
     states = ("less 20" "20-40" "40-60" "60+");
}

node PerCapitaIncome
{
     label = "PerCapitaIncome";
     position = (830 38);
     states = ("State 0");
}

node HaveCar
{
     label = "does the person have a car";
     position = (595 21);
     states = ("State 0");
}

node UnemploymentRate
{
     label = "C3";
     position = (196 320);
     states = ("rate");
}

node BusRidership
{
     label = "Are they riding the bus";
     position = (525 480);
     states = ("State 0");
}

potential (Race)
{
 data = ( 0.814 0.1302 0.0372 );
}

potential (Weekday)
{
 data = ( 0.142 0.142 0.142 0.142 0.142 0.142 0.142 );
}

potential (HaveJob | PerCapitaIncome UnemploymentRate HaveCar Weekday)
{
 data = ((((( 0.2279 )
( 0.9395 )
( 0.9256 )
( 0.9256 )
( 0.9256 )
( 0.9488 )
( 1.0 )))));
}

potential (WhatZipcode | Race)
{
 data = (( 0.42857 0.2 0.142857 )
( 0.285714 0.321429 0.074129 )
( 0.25 0.125 0.125 ));
}

potential (CommuteTime)
{
 data = ( 0.506 0.385 0.066 0.042 );
}

potential (PerCapitaIncome | WhatZipcode)
{
 data = (( 1.0 )
( 1.0 )
( 1.0 ));
}

potential (HaveCar | WhatZipcode)
{
 data = (( 0.4444444 )
( 0.1111111 )
( 0.95238 ));
}

potential (UnemploymentRate | WhatZipcode)
{
 data = (( 0.1314759 )
( 0.109207 )
( 0.099684 ));
}

potential (BusRidership | Race WhatZipcode CommuteTime HaveJob Weekday)
{
 data = (((((( 1.0 )
( 1.0 )
( 1.0 )
( 1.0 )
( 1.0 )
( 1.0 )
( 1.0 )))
((( 1.0 )
( 1.0 )
( 1.0 )
( 1.0 )
( 1.0 )
( 1.0 )
( 1.0 )))
((( 1.0 )
( 1.0 )
( 1.0 )
( 1.0 )
( 1.0 )
( 1.0 )
( 1.0 )))
((( 1.0 )
( 1.0 )
( 1.0 )
( 1.0 )
( 1.0 )
( 1.0 )
( 1.0 ))))
(((( 1.0 )
( 1.0 )
( 1.0 )
( 1.0 )
( 1.0 )
( 1.0 )
( 1.0 )))
((( 1.0 )
( 1.0 )
( 1.0 )
( 1.0 )
( 1.0 )
( 1.0 )
( 1.0 )))
((( 1.0 )
( 1.0 )
( 1.0 )
( 1.0 )
( 1.0 )
( 1.0 )
( 1.0 )))
((( 1.0 )
( 1.0 )
( 1.0 )
( 1.0 )
( 1.0 )
( 1.0 )
( 1.0 ))))
(((( 1.0 )
( 1.0 )
( 1.0 )
( 1.0 )
( 1.0 )
( 1.0 )
( 1.0 )))
((( 1.0 )
( 1.0 )
( 1.0 )
( 1.0 )
( 1.0 )
( 1.0 )
( 1.0 )))
((( 1.0 )
( 1.0 )
( 1.0 )
( 1.0 )
( 1.0 )
( 1.0 )
( 1.0 )))
((( 1.0 )
( 1.0 )
( 1.0 )
( 1.0 )
( 1.0 )
( 1.0 )
( 1.0 )))))
((((( 1.0 )
( 1.0 )
( 1.0 )
( 1.0 )
( 1.0 )
( 1.0 )
( 1.0 )))
((( 1.0 )
( 1.0 )
( 1.0 )
( 1.0 )
( 1.0 )
( 1.0 )
( 1.0 )))
((( 1.0 )
( 1.0 )
( 1.0 )
( 1.0 )
( 1.0 )
( 1.0 )
( 1.0 )))
((( 1.0 )
( 1.0 )
( 1.0 )
( 1.0 )
( 1.0 )
( 1.0 )
( 1.0 ))))
(((( 1.0 )
( 1.0 )
( 1.0 )
( 1.0 )
( 1.0 )
( 1.0 )
( 1.0 )))
((( 1.0 )
( 1.0 )
( 1.0 )
( 1.0 )
( 1.0 )
( 1.0 )
( 1.0 )))
((( 1.0 )
( 1.0 )
( 1.0 )
( 1.0 )
( 1.0 )
( 1.0 )
( 1.0 )))
((( 1.0 )
( 1.0 )
( 1.0 )
( 1.0 )
( 1.0 )
( 1.0 )
( 1.0 ))))
(((( 1.0 )
( 1.0 )
( 1.0 )
( 1.0 )
( 1.0 )
( 1.0 )
( 1.0 )))
((( 1.0 )
( 1.0 )
( 1.0 )
( 1.0 )
( 1.0 )
( 1.0 )
( 1.0 )))
((( 1.0 )
( 1.0 )
( 1.0 )
( 1.0 )
( 1.0 )
( 1.0 )
( 1.0 )))
((( 1.0 )
( 1.0 )
( 1.0 )
( 1.0 )
( 1.0 )
( 1.0 )
( 1.0 )))))
((((( 1.0 )
( 1.0 )
( 1.0 )
( 1.0 )
( 1.0 )
( 1.0 )
( 1.0 )))
((( 1.0 )
( 1.0 )
( 1.0 )
( 1.0 )
( 1.0 )
( 1.0 )
( 1.0 )))
((( 1.0 )
( 1.0 )
( 1.0 )
( 1.0 )
( 1.0 )
( 1.0 )
( 1.0 )))
((( 1.0 )
( 1.0 )
( 1.0 )
( 1.0 )
( 1.0 )
( 1.0 )
( 1.0 ))))
(((( 1.0 )
( 1.0 )
( 1.0 )
( 1.0 )
( 1.0 )
( 1.0 )
( 1.0 )))
((( 1.0 )
( 1.0 )
( 1.0 )
( 1.0 )
( 1.0 )
( 1.0 )
( 1.0 )))
((( 1.0 )
( 1.0 )
( 1.0 )
( 1.0 )
( 1.0 )
( 1.0 )
( 1.0 )))
((( 1.0 )
( 1.0 )
( 1.0 )
( 1.0 )
( 1.0 )
( 1.0 )
( 1.0 ))))
(((( 1.0 )
( 1.0 )
( 1.0 )
( 1.0 )
( 1.0 )
( 1.0 )
( 1.0 )))
((( 1.0 )
( 1.0 )
( 1.0 )
( 1.0 )
( 1.0 )
( 1.0 )
( 1.0 )))
((( 1.0 )
( 1.0 )
( 1.0 )
( 1.0 )
( 1.0 )
( 1.0 )
( 1.0 )))
((( 1.0 )
( 1.0 )
( 1.0 )
( 1.0 )
( 1.0 )
( 1.0 )
( 1.0 ))))));
}

